Language model created by QuickLM on Sun Jun  3 18:11:23 EDT 2018
Copyright (c) 1996-2010 Carnegie Mellon University and Alexander I. Rudnicky

The model is in standard ARPA format, designed by Doug Paul while he was at MITRE.

The code that was used to produce this language model is available in Open Source.
Please visit http://www.speech.cs.cmu.edu/tools/ for more information

The (fixed) discount mass is 0.5. The backoffs are computed using the ratio method.
This model based on a corpus of 7 sentences and 19 words

\data\
ngram 1=19
ngram 2=25
ngram 3=19

\1-grams:
-0.9744 </s> -0.3010
-0.9744 <s> -0.2523
-1.8195 ALARM -0.2523
-1.8195 AN -0.2944
-1.8195 FOR -0.2523
-1.8195 GO -0.2944
-1.8195 HELP -0.2523
-1.5185 IS -0.2877
-1.8195 IT -0.2523
-1.8195 MINION -0.2523
-1.8195 SEARCH -0.2944
-1.8195 SET -0.2944
-1.8195 SLEEP -0.2523
-1.8195 THE -0.2944
-1.8195 TIME -0.2877
-1.8195 TO -0.2944
-1.8195 TODAY -0.2523
-1.8195 WEATHER -0.2944
-1.5185 WHAT -0.2808

\2-grams:
-1.1461 <s> GO 0.0000
-1.1461 <s> HELP 0.0000
-1.1461 <s> MINION 0.0000
-1.1461 <s> SEARCH 0.0000
-1.1461 <s> SET 0.0000
-0.8451 <s> WHAT 0.0000
-0.3010 ALARM </s> -0.3010
-0.3010 AN ALARM 0.0000
-0.3010 FOR </s> -0.3010
-0.3010 GO TO 0.0000
-0.3010 HELP </s> -0.3010
-0.6021 IS IT 0.0000
-0.6021 IS THE 0.0000
-0.3010 IT </s> -0.3010
-0.3010 MINION </s> -0.3010
-0.3010 SEARCH FOR 0.0000
-0.3010 SET AN 0.0000
-0.3010 SLEEP </s> -0.3010
-0.3010 THE WEATHER 0.0000
-0.3010 TIME IS -0.1761
-0.3010 TO SLEEP 0.0000
-0.3010 TODAY </s> -0.3010
-0.3010 WEATHER TODAY 0.0000
-0.6021 WHAT IS -0.1761
-0.6021 WHAT TIME 0.0000

\3-grams:
-0.3010 <s> GO TO
-0.3010 <s> HELP </s>
-0.3010 <s> MINION </s>
-0.3010 <s> SEARCH FOR
-0.3010 <s> SET AN
-0.6021 <s> WHAT IS
-0.6021 <s> WHAT TIME
-0.3010 AN ALARM </s>
-0.3010 GO TO SLEEP
-0.3010 IS IT </s>
-0.3010 IS THE WEATHER
-0.3010 SEARCH FOR </s>
-0.3010 SET AN ALARM
-0.3010 THE WEATHER TODAY
-0.3010 TIME IS IT
-0.3010 TO SLEEP </s>
-0.3010 WEATHER TODAY </s>
-0.3010 WHAT IS THE
-0.3010 WHAT TIME IS

\end\
